digraph Tree {
node [shape=box, style="filled, rounded", color="black", fontname=helvetica] ;
edge [fontname=helvetica] ;
0 [label="X[9395] <= 11.063\ngini = 0.459\nsamples = 4710\nvalue = [2667, 4810]", fillcolor="#399de572"] ;
1 [label="X[115] <= -9.364\ngini = 0.434\nsamples = 4141\nvalue = [2096, 4490]", fillcolor="#399de588"] ;
0 -> 1 [labeldistance=2.5, labelangle=45, headlabel="True"] ;
2 [label="X[3997] <= 12.288\ngini = 0.494\nsamples = 1043\nvalue = [740, 919]", fillcolor="#399de532"] ;
1 -> 2 ;
3 [label="X[5331] <= 4.878\ngini = 0.487\nsamples = 955\nvalue = [634, 880]", fillcolor="#399de547"] ;
2 -> 3 ;
4 [label="X[10575] <= -37.236\ngini = 0.473\nsamples = 830\nvalue = [509, 819]", fillcolor="#399de561"] ;
3 -> 4 ;
5 [label="X[13399] <= -4.13\ngini = 0.391\nsamples = 66\nvalue = [80, 29]", fillcolor="#e58139a3"] ;
4 -> 5 ;
6 [label="X[12896] <= 39.627\ngini = 0.23\nsamples = 50\nvalue = [72, 11]", fillcolor="#e58139d8"] ;
5 -> 6 ;
7 [label="gini = 0.162\nsamples = 46\nvalue = [72, 7]", fillcolor="#e58139e6"] ;
6 -> 7 ;
8 [label="gini = 0.0\nsamples = 4\nvalue = [0, 4]", fillcolor="#399de5ff"] ;
6 -> 8 ;
9 [label="X[11921] <= -5.824\ngini = 0.426\nsamples = 16\nvalue = [8, 18]", fillcolor="#399de58e"] ;
5 -> 9 ;
10 [label="gini = 0.0\nsamples = 5\nvalue = [6, 0]", fillcolor="#e58139ff"] ;
9 -> 10 ;
11 [label="gini = 0.18\nsamples = 11\nvalue = [2, 18]", fillcolor="#399de5e3"] ;
9 -> 11 ;
12 [label="X[6294] <= 5.015\ngini = 0.456\nsamples = 764\nvalue = [429, 790]", fillcolor="#399de575"] ;
4 -> 12 ;
13 [label="X[2267] <= -10.01\ngini = 0.43\nsamples = 637\nvalue = [315, 692]", fillcolor="#399de58b"] ;
12 -> 13 ;
14 [label="gini = 0.444\nsamples = 59\nvalue = [58, 29]", fillcolor="#e581397f"] ;
13 -> 14 ;
15 [label="gini = 0.403\nsamples = 578\nvalue = [257, 663]", fillcolor="#399de59c"] ;
13 -> 15 ;
16 [label="X[5622] <= 4.816\ngini = 0.497\nsamples = 127\nvalue = [114, 98]", fillcolor="#e5813924"] ;
12 -> 16 ;
17 [label="gini = 0.456\nsamples = 81\nvalue = [45, 83]", fillcolor="#399de575"] ;
16 -> 17 ;
18 [label="gini = 0.293\nsamples = 46\nvalue = [69, 15]", fillcolor="#e58139c8"] ;
16 -> 18 ;
19 [label="X[3355] <= -4.39\ngini = 0.441\nsamples = 125\nvalue = [125, 61]", fillcolor="#e5813983"] ;
3 -> 19 ;
20 [label="X[9129] <= -21.836\ngini = 0.115\nsamples = 35\nvalue = [46, 3]", fillcolor="#e58139ee"] ;
19 -> 20 ;
21 [label="gini = 0.0\nsamples = 2\nvalue = [0, 2]", fillcolor="#399de5ff"] ;
20 -> 21 ;
22 [label="X[1596] <= 8.448\ngini = 0.042\nsamples = 33\nvalue = [46, 1]", fillcolor="#e58139f9"] ;
20 -> 22 ;
23 [label="gini = 0.0\nsamples = 32\nvalue = [46, 0]", fillcolor="#e58139ff"] ;
22 -> 23 ;
24 [label="gini = 0.0\nsamples = 1\nvalue = [0, 1]", fillcolor="#399de5ff"] ;
22 -> 24 ;
25 [label="X[11231] <= -13.245\ngini = 0.488\nsamples = 90\nvalue = [79, 58]", fillcolor="#e5813944"] ;
19 -> 25 ;
26 [label="X[11500] <= -8.917\ngini = 0.423\nsamples = 33\nvalue = [14, 32]", fillcolor="#399de58f"] ;
25 -> 26 ;
27 [label="gini = 0.305\nsamples = 12\nvalue = [13, 3]", fillcolor="#e58139c4"] ;
26 -> 27 ;
28 [label="gini = 0.064\nsamples = 21\nvalue = [1, 29]", fillcolor="#399de5f6"] ;
26 -> 28 ;
29 [label="X[16274] <= -6.378\ngini = 0.408\nsamples = 57\nvalue = [65, 26]", fillcolor="#e5813999"] ;
25 -> 29 ;
30 [label="gini = 0.475\nsamples = 18\nvalue = [12, 19]", fillcolor="#399de55e"] ;
29 -> 30 ;
31 [label="gini = 0.206\nsamples = 39\nvalue = [53, 7]", fillcolor="#e58139dd"] ;
29 -> 31 ;
32 [label="X[12111] <= -6.459\ngini = 0.393\nsamples = 88\nvalue = [106, 39]", fillcolor="#e58139a1"] ;
2 -> 32 ;
33 [label="X[16314] <= 9.898\ngini = 0.229\nsamples = 54\nvalue = [79, 12]", fillcolor="#e58139d8"] ;
32 -> 33 ;
34 [label="X[4409] <= -11.576\ngini = 0.184\nsamples = 52\nvalue = [79, 9]", fillcolor="#e58139e2"] ;
33 -> 34 ;
35 [label="gini = 0.0\nsamples = 1\nvalue = [0, 2]", fillcolor="#399de5ff"] ;
34 -> 35 ;
36 [label="X[12415] <= 18.188\ngini = 0.15\nsamples = 51\nvalue = [79, 7]", fillcolor="#e58139e8"] ;
34 -> 36 ;
37 [label="gini = 0.112\nsamples = 50\nvalue = [79, 5]", fillcolor="#e58139ef"] ;
36 -> 37 ;
38 [label="gini = 0.0\nsamples = 1\nvalue = [0, 2]", fillcolor="#399de5ff"] ;
36 -> 38 ;
39 [label="gini = 0.0\nsamples = 2\nvalue = [0, 3]", fillcolor="#399de5ff"] ;
33 -> 39 ;
40 [label="X[6730] <= -6.088\ngini = 0.5\nsamples = 34\nvalue = [27, 27]", fillcolor="#e5813900"] ;
32 -> 40 ;
41 [label="X[11996] <= 13.692\ngini = 0.124\nsamples = 10\nvalue = [14, 1]", fillcolor="#e58139ed"] ;
40 -> 41 ;
42 [label="gini = 0.0\nsamples = 9\nvalue = [14, 0]", fillcolor="#e58139ff"] ;
41 -> 42 ;
43 [label="gini = 0.0\nsamples = 1\nvalue = [0, 1]", fillcolor="#399de5ff"] ;
41 -> 43 ;
44 [label="X[12463] <= 3.871\ngini = 0.444\nsamples = 24\nvalue = [13, 26]", fillcolor="#399de57f"] ;
40 -> 44 ;
45 [label="X[4553] <= -3.917\ngini = 0.142\nsamples = 17\nvalue = [2, 24]", fillcolor="#399de5ea"] ;
44 -> 45 ;
46 [label="gini = 0.444\nsamples = 3\nvalue = [2, 1]", fillcolor="#e581397f"] ;
45 -> 46 ;
47 [label="gini = 0.0\nsamples = 14\nvalue = [0, 23]", fillcolor="#399de5ff"] ;
45 -> 47 ;
48 [label="X[1392] <= -6.302\ngini = 0.26\nsamples = 7\nvalue = [11, 2]", fillcolor="#e58139d1"] ;
44 -> 48 ;
49 [label="gini = 0.0\nsamples = 1\nvalue = [0, 2]", fillcolor="#399de5ff"] ;
48 -> 49 ;
50 [label="gini = 0.0\nsamples = 6\nvalue = [11, 0]", fillcolor="#e58139ff"] ;
48 -> 50 ;
51 [label="X[5723] <= 6.185\ngini = 0.399\nsamples = 3098\nvalue = [1356, 3571]", fillcolor="#399de59e"] ;
1 -> 51 ;
52 [label="X[13935] <= -10.157\ngini = 0.361\nsamples = 2447\nvalue = [916, 2963]", fillcolor="#399de5b0"] ;
51 -> 52 ;
53 [label="X[3827] <= -7.42\ngini = 0.485\nsamples = 353\nvalue = [239, 338]", fillcolor="#399de54b"] ;
52 -> 53 ;
54 [label="X[15094] <= -2.487\ngini = 0.344\nsamples = 48\nvalue = [60, 17]", fillcolor="#e58139b7"] ;
53 -> 54 ;
55 [label="X[12706] <= -13.911\ngini = 0.494\nsamples = 30\nvalue = [21, 17]", fillcolor="#e5813931"] ;
54 -> 55 ;
56 [label="gini = 0.0\nsamples = 8\nvalue = [13, 0]", fillcolor="#e58139ff"] ;
55 -> 56 ;
57 [label="gini = 0.435\nsamples = 22\nvalue = [8, 17]", fillcolor="#399de587"] ;
55 -> 57 ;
58 [label="gini = 0.0\nsamples = 18\nvalue = [39, 0]", fillcolor="#e58139ff"] ;
54 -> 58 ;
59 [label="X[5843] <= 4.436\ngini = 0.46\nsamples = 305\nvalue = [179, 321]", fillcolor="#399de571"] ;
53 -> 59 ;
60 [label="X[5683] <= 10.07\ngini = 0.405\nsamples = 224\nvalue = [102, 260]", fillcolor="#399de59b"] ;
59 -> 60 ;
61 [label="gini = 0.355\nsamples = 205\nvalue = [75, 250]", fillcolor="#399de5b3"] ;
60 -> 61 ;
62 [label="gini = 0.394\nsamples = 19\nvalue = [27, 10]", fillcolor="#e58139a1"] ;
60 -> 62 ;
63 [label="X[15277] <= -5.274\ngini = 0.493\nsamples = 81\nvalue = [77, 61]", fillcolor="#e5813935"] ;
59 -> 63 ;
64 [label="gini = 0.291\nsamples = 29\nvalue = [42, 9]", fillcolor="#e58139c8"] ;
63 -> 64 ;
65 [label="gini = 0.481\nsamples = 52\nvalue = [35, 52]", fillcolor="#399de553"] ;
63 -> 65 ;
66 [label="X[15607] <= -14.511\ngini = 0.326\nsamples = 2094\nvalue = [677, 2625]", fillcolor="#399de5bd"] ;
52 -> 66 ;
67 [label="X[637] <= 2.543\ngini = 0.484\nsamples = 178\nvalue = [124, 178]", fillcolor="#399de54d"] ;
66 -> 67 ;
68 [label="X[12947] <= -14.638\ngini = 0.452\nsamples = 153\nvalue = [90, 171]", fillcolor="#399de579"] ;
67 -> 68 ;
69 [label="gini = 0.159\nsamples = 12\nvalue = [21, 2]", fillcolor="#e58139e7"] ;
68 -> 69 ;
70 [label="gini = 0.412\nsamples = 141\nvalue = [69, 169]", fillcolor="#399de597"] ;
68 -> 70 ;
71 [label="X[6034] <= -9.878\ngini = 0.283\nsamples = 25\nvalue = [34, 7]", fillcolor="#e58139ca"] ;
67 -> 71 ;
72 [label="gini = 0.0\nsamples = 3\nvalue = [0, 4]", fillcolor="#399de5ff"] ;
71 -> 72 ;
73 [label="gini = 0.149\nsamples = 22\nvalue = [34, 3]", fillcolor="#e58139e9"] ;
71 -> 73 ;
74 [label="X[13590] <= -8.739\ngini = 0.301\nsamples = 1916\nvalue = [553, 2447]", fillcolor="#399de5c5"] ;
66 -> 74 ;
75 [label="X[270] <= -12.177\ngini = 0.498\nsamples = 114\nvalue = [80, 91]", fillcolor="#399de51f"] ;
74 -> 75 ;
76 [label="gini = 0.272\nsamples = 20\nvalue = [31, 6]", fillcolor="#e58139ce"] ;
75 -> 76 ;
77 [label="gini = 0.464\nsamples = 94\nvalue = [49, 85]", fillcolor="#399de56c"] ;
75 -> 77 ;
78 [label="X[7129] <= 17.12\ngini = 0.278\nsamples = 1802\nvalue = [473, 2356]", fillcolor="#399de5cc"] ;
74 -> 78 ;
79 [label="gini = 0.269\nsamples = 1775\nvalue = [447, 2343]", fillcolor="#399de5ce"] ;
78 -> 79 ;
80 [label="gini = 0.444\nsamples = 27\nvalue = [26, 13]", fillcolor="#e581397f"] ;
78 -> 80 ;
81 [label="X[2615] <= -18.27\ngini = 0.487\nsamples = 651\nvalue = [440, 608]", fillcolor="#399de546"] ;
51 -> 81 ;
82 [label="X[4224] <= -19.094\ngini = 0.37\nsamples = 69\nvalue = [83, 27]", fillcolor="#e58139ac"] ;
81 -> 82 ;
83 [label="X[4282] <= -3.408\ngini = 0.337\nsamples = 8\nvalue = [3, 11]", fillcolor="#399de5b9"] ;
82 -> 83 ;
84 [label="gini = 0.0\nsamples = 2\nvalue = [3, 0]", fillcolor="#e58139ff"] ;
83 -> 84 ;
85 [label="gini = 0.0\nsamples = 6\nvalue = [0, 11]", fillcolor="#399de5ff"] ;
83 -> 85 ;
86 [label="X[4105] <= 7.238\ngini = 0.278\nsamples = 61\nvalue = [80, 16]", fillcolor="#e58139cc"] ;
82 -> 86 ;
87 [label="X[2118] <= -7.024\ngini = 0.172\nsamples = 53\nvalue = [76, 8]", fillcolor="#e58139e4"] ;
86 -> 87 ;
88 [label="gini = 0.0\nsamples = 2\nvalue = [0, 3]", fillcolor="#399de5ff"] ;
87 -> 88 ;
89 [label="gini = 0.116\nsamples = 51\nvalue = [76, 5]", fillcolor="#e58139ee"] ;
87 -> 89 ;
90 [label="X[11303] <= 0.865\ngini = 0.444\nsamples = 8\nvalue = [4, 8]", fillcolor="#399de57f"] ;
86 -> 90 ;
91 [label="gini = 0.0\nsamples = 5\nvalue = [0, 8]", fillcolor="#399de5ff"] ;
90 -> 91 ;
92 [label="gini = 0.0\nsamples = 3\nvalue = [4, 0]", fillcolor="#e58139ff"] ;
90 -> 92 ;
93 [label="X[6622] <= 18.361\ngini = 0.471\nsamples = 582\nvalue = [357, 581]", fillcolor="#399de562"] ;
81 -> 93 ;
94 [label="X[5716] <= -3.22\ngini = 0.448\nsamples = 522\nvalue = [284, 554]", fillcolor="#399de57c"] ;
93 -> 94 ;
95 [label="X[6946] <= 4.348\ngini = 0.295\nsamples = 34\nvalue = [41, 9]", fillcolor="#e58139c7"] ;
94 -> 95 ;
96 [label="gini = 0.095\nsamples = 26\nvalue = [38, 2]", fillcolor="#e58139f2"] ;
95 -> 96 ;
97 [label="gini = 0.42\nsamples = 8\nvalue = [3, 7]", fillcolor="#399de592"] ;
95 -> 97 ;
98 [label="X[14280] <= -12.238\ngini = 0.427\nsamples = 488\nvalue = [243, 545]", fillcolor="#399de58d"] ;
94 -> 98 ;
99 [label="gini = 0.47\nsamples = 46\nvalue = [48, 29]", fillcolor="#e5813965"] ;
98 -> 99 ;
100 [label="gini = 0.398\nsamples = 442\nvalue = [195, 516]", fillcolor="#399de59f"] ;
98 -> 100 ;
101 [label="X[15945] <= 8.021\ngini = 0.394\nsamples = 60\nvalue = [73, 27]", fillcolor="#e58139a1"] ;
93 -> 101 ;
102 [label="X[4768] <= -12.105\ngini = 0.328\nsamples = 55\nvalue = [73, 19]", fillcolor="#e58139bd"] ;
101 -> 102 ;
103 [label="gini = 0.0\nsamples = 6\nvalue = [0, 9]", fillcolor="#399de5ff"] ;
102 -> 103 ;
104 [label="gini = 0.212\nsamples = 49\nvalue = [73, 10]", fillcolor="#e58139dc"] ;
102 -> 104 ;
105 [label="gini = 0.0\nsamples = 5\nvalue = [0, 8]", fillcolor="#399de5ff"] ;
101 -> 105 ;
106 [label="X[7862] <= 10.931\ngini = 0.46\nsamples = 569\nvalue = [571, 320]", fillcolor="#e5813970"] ;
0 -> 106 [labeldistance=2.5, labelangle=-45, headlabel="False"] ;
107 [label="X[1498] <= -5.198\ngini = 0.5\nsamples = 269\nvalue = [212, 210]", fillcolor="#e5813902"] ;
106 -> 107 ;
108 [label="X[3748] <= -1.714\ngini = 0.401\nsamples = 96\nvalue = [104, 40]", fillcolor="#e581399d"] ;
107 -> 108 ;
109 [label="X[4285] <= 1.145\ngini = 0.493\nsamples = 45\nvalue = [39, 31]", fillcolor="#e5813934"] ;
108 -> 109 ;
110 [label="X[2200] <= -3.347\ngini = 0.423\nsamples = 37\nvalue = [39, 17]", fillcolor="#e5813990"] ;
109 -> 110 ;
111 [label="X[2577] <= -3.403\ngini = 0.472\nsamples = 14\nvalue = [8, 13]", fillcolor="#399de562"] ;
110 -> 111 ;
112 [label="gini = 0.0\nsamples = 5\nvalue = [7, 0]", fillcolor="#e58139ff"] ;
111 -> 112 ;
113 [label="gini = 0.133\nsamples = 9\nvalue = [1, 13]", fillcolor="#399de5eb"] ;
111 -> 113 ;
114 [label="X[9723] <= 6.673\ngini = 0.202\nsamples = 23\nvalue = [31, 4]", fillcolor="#e58139de"] ;
110 -> 114 ;
115 [label="gini = 0.444\nsamples = 6\nvalue = [2, 4]", fillcolor="#399de57f"] ;
114 -> 115 ;
116 [label="gini = 0.0\nsamples = 17\nvalue = [29, 0]", fillcolor="#e58139ff"] ;
114 -> 116 ;
117 [label="gini = 0.0\nsamples = 8\nvalue = [0, 14]", fillcolor="#399de5ff"] ;
109 -> 117 ;
118 [label="X[11465] <= 15.665\ngini = 0.214\nsamples = 51\nvalue = [65, 9]", fillcolor="#e58139dc"] ;
108 -> 118 ;
119 [label="X[8893] <= -4.08\ngini = 0.157\nsamples = 48\nvalue = [64, 6]", fillcolor="#e58139e7"] ;
118 -> 119 ;
120 [label="gini = 0.0\nsamples = 2\nvalue = [0, 2]", fillcolor="#399de5ff"] ;
119 -> 120 ;
121 [label="X[7581] <= 27.858\ngini = 0.111\nsamples = 46\nvalue = [64, 4]", fillcolor="#e58139ef"] ;
119 -> 121 ;
122 [label="gini = 0.059\nsamples = 45\nvalue = [64, 2]", fillcolor="#e58139f7"] ;
121 -> 122 ;
123 [label="gini = 0.0\nsamples = 1\nvalue = [0, 2]", fillcolor="#399de5ff"] ;
121 -> 123 ;
124 [label="X[2496] <= -3.474\ngini = 0.375\nsamples = 3\nvalue = [1, 3]", fillcolor="#399de5aa"] ;
118 -> 124 ;
125 [label="gini = 0.0\nsamples = 2\nvalue = [0, 3]", fillcolor="#399de5ff"] ;
124 -> 125 ;
126 [label="gini = 0.0\nsamples = 1\nvalue = [1, 0]", fillcolor="#e58139ff"] ;
124 -> 126 ;
127 [label="X[10167] <= 20.604\ngini = 0.475\nsamples = 173\nvalue = [108, 170]", fillcolor="#399de55d"] ;
107 -> 127 ;
128 [label="X[14605] <= -0.824\ngini = 0.438\nsamples = 147\nvalue = [78, 163]", fillcolor="#399de585"] ;
127 -> 128 ;
129 [label="X[13850] <= -1.765\ngini = 0.496\nsamples = 55\nvalue = [45, 38]", fillcolor="#e5813928"] ;
128 -> 129 ;
130 [label="X[8209] <= 2.736\ngini = 0.399\nsamples = 25\nvalue = [11, 29]", fillcolor="#399de59e"] ;
129 -> 130 ;
131 [label="gini = 0.133\nsamples = 16\nvalue = [2, 26]", fillcolor="#399de5eb"] ;
130 -> 131 ;
132 [label="gini = 0.375\nsamples = 9\nvalue = [9, 3]", fillcolor="#e58139aa"] ;
130 -> 132 ;
133 [label="X[160] <= -7.38\ngini = 0.331\nsamples = 30\nvalue = [34, 9]", fillcolor="#e58139bb"] ;
129 -> 133 ;
134 [label="gini = 0.375\nsamples = 7\nvalue = [2, 6]", fillcolor="#399de5aa"] ;
133 -> 134 ;
135 [label="gini = 0.157\nsamples = 23\nvalue = [32, 3]", fillcolor="#e58139e7"] ;
133 -> 135 ;
136 [label="X[16362] <= 13.611\ngini = 0.33\nsamples = 92\nvalue = [33, 125]", fillcolor="#399de5bc"] ;
128 -> 136 ;
137 [label="X[5498] <= 20.33\ngini = 0.292\nsamples = 86\nvalue = [27, 125]", fillcolor="#399de5c8"] ;
136 -> 137 ;
138 [label="gini = 0.246\nsamples = 82\nvalue = [21, 125]", fillcolor="#399de5d4"] ;
137 -> 138 ;
139 [label="gini = 0.0\nsamples = 4\nvalue = [6, 0]", fillcolor="#e58139ff"] ;
137 -> 139 ;
140 [label="gini = 0.0\nsamples = 6\nvalue = [6, 0]", fillcolor="#e58139ff"] ;
136 -> 140 ;
141 [label="X[9280] <= 1.337\ngini = 0.307\nsamples = 26\nvalue = [30, 7]", fillcolor="#e58139c4"] ;
127 -> 141 ;
142 [label="gini = 0.0\nsamples = 17\nvalue = [27, 0]", fillcolor="#e58139ff"] ;
141 -> 142 ;
143 [label="X[7142] <= 9.715\ngini = 0.42\nsamples = 9\nvalue = [3, 7]", fillcolor="#399de592"] ;
141 -> 143 ;
144 [label="gini = 0.0\nsamples = 5\nvalue = [0, 6]", fillcolor="#399de5ff"] ;
143 -> 144 ;
145 [label="X[10890] <= -1.083\ngini = 0.375\nsamples = 4\nvalue = [3, 1]", fillcolor="#e58139aa"] ;
143 -> 145 ;
146 [label="gini = 0.0\nsamples = 1\nvalue = [0, 1]", fillcolor="#399de5ff"] ;
145 -> 146 ;
147 [label="gini = 0.0\nsamples = 3\nvalue = [3, 0]", fillcolor="#e58139ff"] ;
145 -> 147 ;
148 [label="X[2550] <= -4.929\ngini = 0.359\nsamples = 300\nvalue = [359, 110]", fillcolor="#e58139b1"] ;
106 -> 148 ;
149 [label="X[2461] <= 22.949\ngini = 0.117\nsamples = 102\nvalue = [150, 10]", fillcolor="#e58139ee"] ;
148 -> 149 ;
150 [label="X[12760] <= 17.507\ngini = 0.085\nsamples = 100\nvalue = [150, 7]", fillcolor="#e58139f3"] ;
149 -> 150 ;
151 [label="X[3947] <= -16.133\ngini = 0.074\nsamples = 99\nvalue = [150, 6]", fillcolor="#e58139f5"] ;
150 -> 151 ;
152 [label="gini = 0.0\nsamples = 2\nvalue = [0, 2]", fillcolor="#399de5ff"] ;
151 -> 152 ;
153 [label="X[5911] <= 35.665\ngini = 0.051\nsamples = 97\nvalue = [150, 4]", fillcolor="#e58139f8"] ;
151 -> 153 ;
154 [label="gini = 0.038\nsamples = 96\nvalue = [150, 3]", fillcolor="#e58139fa"] ;
153 -> 154 ;
155 [label="gini = 0.0\nsamples = 1\nvalue = [0, 1]", fillcolor="#399de5ff"] ;
153 -> 155 ;
156 [label="gini = 0.0\nsamples = 1\nvalue = [0, 1]", fillcolor="#399de5ff"] ;
150 -> 156 ;
157 [label="gini = 0.0\nsamples = 2\nvalue = [0, 3]", fillcolor="#399de5ff"] ;
149 -> 157 ;
158 [label="X[6297] <= 7.181\ngini = 0.438\nsamples = 198\nvalue = [209, 100]", fillcolor="#e5813985"] ;
148 -> 158 ;
159 [label="X[6203] <= 2.049\ngini = 0.457\nsamples = 34\nvalue = [18, 33]", fillcolor="#399de574"] ;
158 -> 159 ;
160 [label="X[1555] <= -11.027\ngini = 0.128\nsamples = 17\nvalue = [2, 27]", fillcolor="#399de5ec"] ;
159 -> 160 ;
161 [label="gini = 0.0\nsamples = 2\nvalue = [2, 0]", fillcolor="#e58139ff"] ;
160 -> 161 ;
162 [label="gini = 0.0\nsamples = 15\nvalue = [0, 27]", fillcolor="#399de5ff"] ;
160 -> 162 ;
163 [label="X[1476] <= -8.514\ngini = 0.397\nsamples = 17\nvalue = [16, 6]", fillcolor="#e581399f"] ;
159 -> 163 ;
164 [label="gini = 0.0\nsamples = 3\nvalue = [0, 5]", fillcolor="#399de5ff"] ;
163 -> 164 ;
165 [label="X[10231] <= 26.688\ngini = 0.111\nsamples = 14\nvalue = [16, 1]", fillcolor="#e58139ef"] ;
163 -> 165 ;
166 [label="gini = 0.0\nsamples = 13\nvalue = [16, 0]", fillcolor="#e58139ff"] ;
165 -> 166 ;
167 [label="gini = 0.0\nsamples = 1\nvalue = [0, 1]", fillcolor="#399de5ff"] ;
165 -> 167 ;
168 [label="X[1597] <= 9.597\ngini = 0.385\nsamples = 164\nvalue = [191, 67]", fillcolor="#e58139a6"] ;
158 -> 168 ;
169 [label="X[9724] <= 9.924\ngini = 0.332\nsamples = 149\nvalue = [184, 49]", fillcolor="#e58139bb"] ;
168 -> 169 ;
170 [label="X[14331] <= 4.283\ngini = 0.464\nsamples = 70\nvalue = [64, 37]", fillcolor="#e581396c"] ;
169 -> 170 ;
171 [label="gini = 0.145\nsamples = 25\nvalue = [35, 3]", fillcolor="#e58139e9"] ;
170 -> 171 ;
172 [label="gini = 0.497\nsamples = 45\nvalue = [29, 34]", fillcolor="#399de525"] ;
170 -> 172 ;
173 [label="X[7671] <= 4.471\ngini = 0.165\nsamples = 79\nvalue = [120, 12]", fillcolor="#e58139e6"] ;
169 -> 173 ;
174 [label="gini = 0.0\nsamples = 2\nvalue = [0, 3]", fillcolor="#399de5ff"] ;
173 -> 174 ;
175 [label="gini = 0.13\nsamples = 77\nvalue = [120, 9]", fillcolor="#e58139ec"] ;
173 -> 175 ;
176 [label="X[10329] <= 24.633\ngini = 0.403\nsamples = 15\nvalue = [7, 18]", fillcolor="#399de59c"] ;
168 -> 176 ;
177 [label="X[3667] <= 14.012\ngini = 0.18\nsamples = 12\nvalue = [2, 18]", fillcolor="#399de5e3"] ;
176 -> 177 ;
178 [label="gini = 0.0\nsamples = 10\nvalue = [0, 18]", fillcolor="#399de5ff"] ;
177 -> 178 ;
179 [label="gini = 0.0\nsamples = 2\nvalue = [2, 0]", fillcolor="#e58139ff"] ;
177 -> 179 ;
180 [label="gini = 0.0\nsamples = 3\nvalue = [5, 0]", fillcolor="#e58139ff"] ;
176 -> 180 ;
}